[[17.287739937280868,-13.224097830017024,-1.774441202235503,-11.750596528586657,-8.816485294696838,-6.984743071731204,-15.24279855344411,-5.961263823366754,-17.404563703885994,-5.0756374563632605,-6.923625997539716,-10.432963358620286,-6.353882273744551,-11.42728225425683,-2.727135861327206,-16.212312416509715,-2.612246878450159,-10.662532295484,-15.6498125154631,-12.733005270300223,14.744898302710341,-11.64780436904566,19.37749338266937,-2.0272910901490238,-2.729607297408591,-18.974406272441264,-8.304755170472312,-9.573326361812295,-19.740891499145167,2.1070670987517555,21.29854863212502,-11.208195395196306,-5.031518154012896,16.39390026555807,-4.929887543150305,-12.68430984803856,-1.700553170705616,16.65037085429496,28.484471314238302,12.565999572011028,-1.5418922233509087,-8.769518595481038,-10.242053132547674,-7.495977662508359,-1.772640702613019,-7.674073364965588,-5.8499408884831565,-1.3224215200533587,2.1795306220859634,-3.118838061407332,21.274657595113304,-4.701345185256413,-10.769141915094258,-11.971275668047031,3.027939185900287,-14.860086340208204,-5.033654631713668,-1.337723753682942,21.450312770194444,17.80983932252945,27.44899878417619,-16.071765322696226,-3.9787817709042526,-17.25006357773882,-5.519495444040155,-5.255444077652735,-12.40727957688072,-13.468576798783717,-15.638030844185854,-5.639487171447676,-0.7389337202356936,0.9709509374328712,-6.112392258571706,-3.359115664270857,11.216411938161382,-5.024249837339738,16.99016546741442,-11.667044960484107,-11.80891981451323,-12.965460786770407,29.67020290461679,-7.656353932613961,15.404483776497356,-9.228535397091402,-1.196475011371142,-21.873776249204823,14.895215985060025,-3.838326660844179,-20.553403694572182,-13.796692718858694,-17.873185715668942,15.274043750011538,-3.4052806031536673,-11.887278396019818,-8.85611803470703,22.63306783041906,-2.827223177908552,-3.7877077700755337,31.507547427523328,15.842664392483497,-15.826518230278486,-4.721561195614604,-2.526322533033364,19.403575603407962,-13.893483669611777,-0.704324071483386,-12.156963166373497,-3.1638033773623295,-7.736570117156456,-16.44742284963185,1.5390458582875322,-14.356731659845526,-15.04647196812552,-20.25412013753909,-6.586893399991035,-16.541890919644285,-20.13779001375908,-15.035835403238304,-5.505973755573182,-0.3231317438690903,2.0746648226888698,-16.951465046136345,-4.353645563934203,-18.187777703253833,-13.562707355576602,-3.4260305003047353,-11.293832243825273,18.259354788924274,-0.2622177706243236,-8.825154301805311,-3.3041620990913527,-15.038340745451794,-4.499194974358629,0.9594081350597865,-20.88403298897253,-11.106254807091874,-15.01111761485329,-11.43470539163063,-10.488841127519622,13.572604380033441,-17.14386986351023,-2.391423592809272,-4.117816090641899,-10.581806138663575,-16.210934872662353,-2.4987154349798493,-16.67642683491802,-10.970846871943538,-17.66722307592524,18.998422735597767,-0.3160499201652943,-2.964747098865127,-9.281068247275417,-3.6929503448605394,-11.985997557981769,-5.502010183885978,10.835257637237069,15.512046438213686,16.830346672735992,-0.5219317249034502,23.328736876030014,-4.708022338749184,-0.9369615672769013,-2.4846356694428993,-10.584929025917967,17.700657986039843,3.7662971007953048,-4.756501439928232,9.072261739881554,-12.273019098167758,-1.4739949751196624,10.777861797937243,-9.198719503889567,21.451163080083422,-18.089057970413965,2.4919482728601987,0.4001205548053441,16.40506017838238,-6.075593922036288,8.892574784742479,-2.513517739668357,9.91180209905928,-9.064475508583877,-12.052788939309645,0.6065189776435777,-20.21873869668872,9.370537791622679,12.423104007593476,26.645105457603247,-15.85193367774216,-9.934019554255068,-7.6959572816705855,-19.45744092601341,20.060242687506115,-15.29669815563042,-6.600336333593506,1.1263422087333388,-19.66025474973429,16.909250439925614,-0.5626769604868401,24.452139759144195,-8.013573689594313,-4.2755424642809325,-13.247811707980574,-13.811238057223763,-10.231106794309522,-11.90476629357403,14.710713451148404,-11.228148361941344,-10.572978731966131,16.321731222728285,-3.4906749561240917,-21.954175932113987,14.395424830919431,14.536901986862835,20.201297633310418,-1.982402359528053,-1.3727038183150817,-9.856132727450834,-6.607622328307969,15.171250054039307,-2.9279665652882647,17.014500470932987,18.32352864414647,1.578054012765197,-20.821650975194636,20.249728225242123,-5.713039092897087,-15.37527583859601,-1.6429476503792706,-23.545275832819218,12.655367506239696,19.72254821062344,-12.008120384839238,-16.87306900120379,-18.644721873958407,-16.464052959643073,-9.888612135828678,-3.643328117002748,-15.796407024498183,11.839440706995767,-5.525586360976295,19.41292621896691,22.559633314779475,-7.787792115570198,-22.824842346094645,-15.487299478038718,-14.475548503862617,-8.608017328509053,-5.325959759201637,-2.830848228987282,-9.209994480218466,-11.352087458269398,-13.622773451460352,4.437155935646674,-11.90212015711564,-4.679196808839454,-7.751005428147382,-3.3539982946838878,-12.194789874772466,16.102056584624133,-12.01551522195691,-1.0258765863663366,-9.334150682753071,-12.377215264033666,20.348811563097318,-5.594258167405059,13.533512952116617,10.890829256764839,-15.52942172841678,-11.516840610204374,-15.670233101826561,-2.37214073761055,-17.122989313803252,-18.03842276511823,0.9218220301403471,-11.648247817520836,-10.933001400669935,10.502487823454203,-12.165804938683289,-4.55296938536383,-3.481668672175337,-14.112281155913958,0.4177430678993364,-15.097772448153632,-4.033676242972674,-11.525734546870625,-5.8769746012211845,7.220679806362493,-1.3120946401341482,-12.448580293599733,-17.456931639792305,-11.566002302418873,-14.906753232178811,16.55239360327939,-17.834398814780474,-15.038999921776517,-16.09409994258385,-8.623107777471583,-3.5301317103480563,-5.263822454359748,-13.518301131698319,-7.169960077268246,-32.78358270342329,-3.6010463742303287,-2.739670891902843,-5.6833542321633,-4.23791211786568,-4.357943763082374,-14.35513221622527,-12.325817542700918,-12.85976026239251,-13.741987925347376,-16.49606594063619,-0.8949691004664156,-12.67728641370512,-2.4287212807627276,-7.5796601413290094,-13.71056759635672,-13.304512832374913,-10.994522122058264,-1.4671512980627,12.174417373685696,-3.8415346053370896,-11.776724265402748,26.243107602252234,16.198855014284774,-6.998846508799782,-10.301608605086736,-27.548859823413157,-2.9128100267020156,-13.252894802603324,-2.19878111798365,-2.6663875055468447,-11.488734180820606,4.5125729391564375,-7.004098546276842,-5.585248602564098,-18.746187220844696,17.53019348272286,-6.385438684425201,-1.440990482608054,-10.152942417864939,-7.065122790468625,15.255320506994078,-12.228033632829579,-1.0121297604186796,16.130034285823942,-13.479159887006025,27.812653328574843,-2.9913443020059853,-3.718370245917819,13.199353993618772,-4.370495571387801,16.99955252547491,-9.087144783292306,-5.011552714044068,-2.8593407119656455,-13.905326428145623,13.695904591331566,16.158066016630038,-8.140251743183047,-14.9676873928372,-7.506694727847628,8.55671298781639,-0.36819425622301205,10.949866454538988,21.06020807066307,-11.286985798235754,4.843605394142031,-23.36421104703053,-12.009053714766805,-12.55517486311561,11.239581946658866,-17.290968372806006,-12.836683617468326,-5.440341079983684,-6.521542571553881,-10.808493112546593,-16.847884005001717,27.771032156185054,-16.572792264581082,-0.30443369382619856,-2.582150726627206,-2.8750910563858354,-13.333021400914058,-8.387633694138776,-6.598459967533631,18.893230590620956,3.475507582871005,-7.241389656649614,-12.108867484031727,-4.545249555723328,-3.70079897135493,18.115366775157273,-17.72401529830289,-16.824440309907853,-7.686254492456979,-10.27747220775203,10.012828154722222,-18.42782903873896,8.422889947001469,-15.796124873719378,22.39509454198631,-9.830014622865965,-2.166861576832212,-17.422066775773008,-9.907548782531302,-13.413068740101538,-5.562493384245449,-6.189676401196759,-17.793075613822502,-4.030328106754132,16.983139524186942,-2.159035888049982,13.97737472182601,-13.54992987000157,-2.061727608266402,-6.190067637863966,-0.8169668919103228,-19.69481714432002,-1.439277298999751,0.11292210321695437,-16.076329811624884,24.32852442700621,-6.8537460658773535,-30.460539273069784,-11.387441946953313,-1.2791449781744118,12.594281859752416,-1.359039701005926,22.677019515969356,-19.403259360697056,-15.432288957408907,-13.39545516231958,13.434341443904776,23.097030275271447,-16.93678411962645,-0.9953240350067742,-9.083825148855478,-2.2854405553987553,-2.5120794269416753,-13.81209630232718,-5.663058187658481,0.323047144914359,-18.07972183556525,-3.5398624994735925,-21.520738779882823,-15.574286424406406,-13.774446781631713,19.80106571524996,13.80796203789008,15.752567686692748,21.72027313722668,-1.949405806230901,31.009347969411436,-13.308181418347358,-0.30278424520189207,-16.579651096823582,16.816859783656284,-7.925608270572234,-15.088590659598793,-17.258958749419286,-1.6414896647427637,14.541965061025122,-6.380012137070818,21.717894297594086,-8.406309226441717,-7.941573548447551,-1.6453030865974827,-5.074640204443828,-11.272758528123402,-12.817416068830362,-6.535418035297415,-2.7620392435407872,-16.20244725476729,-1.5884296830408886,-12.27075290384886,12.29457309946832,-1.6736939287707353,-3.4920055922584217,-3.2454290921631728,-4.397412945194069,1.4580969364983078,-3.3742951322281876,-8.437185763361997,-1.6504513264430087,-16.124931293191995,-2.6962085769638704,-9.845839116506083,16.704602667580243,-9.492088651658092,-19.25619071832337,-13.36321519668236,-9.321883319781131,-7.293796941811364,-16.571728411410863,-11.63932862358513,13.545484031627234,-5.191785471191829,-30.83604248500465,-5.954617205579999,-7.325484213765894,31.338801932435068,-1.3192589363620426,-9.958830516667641,-14.380538605998076,-21.065480789420224,-7.195572718867518,-11.797489053090999,-16.270799746197603,-7.559605199811241,0.11466854357766154,-11.130902211454472,-7.122394364173158,-19.69705103052745,-20.294331877686506,-3.9065090869725303,-6.541493649268097,-4.181748645674346,17.349107823196398,-10.18627684879705,17.410153950828025,-0.14635374479804292,22.934132937424774,-6.976478922527886,13.754999162673245,-14.243445408135068,-2.2064883125994097,-24.380295273744412,-15.549029549361341,22.947392683474682,-6.998242867940468,-6.022060894892937,-5.293532857527926,-11.160968231282693,-2.69499630473766,-6.866403418416362,-13.952814035615432,-11.017853350729938,-17.490828287699195,11.250746155075642,-19.974242007687106,-3.331824922349737,8.159901864569495,1.5133887512552282,15.933441976624376,-0.28091201284756157,-10.886504475970352,0.09946279416884184,-13.396552257768755,-12.618721275068282,1.4621103431695737,19.616227796563827,-3.169765505992121,18.384160128248965,-13.310616898124797,-13.56357580308156,-16.649539962082326,-11.639304763666134,-12.483194790004351,-2.6700303763621664,33.405049503221726,-9.128352776725938,-3.5407967513640846,-12.069556032659566,-4.690651347229759,-0.8616482350383514,-10.33046823237551,6.541888035641029,-9.612004017747223,5.091377671762208,-11.340680666174144,-14.982094637249476,-5.647507781894522,2.2608207980916237,-2.8699901686821354,-18.00246434749612,-15.519830993122682,-14.696502281310783,-8.626936628926842,1.6315925408666228,17.009699807413615,-8.860102872503074,-19.298394135404568,-14.042323103486675,-6.530772061388414,17.54894041169754,-18.490609500867993,-6.345865288297399,-1.9741518579828736,-22.399245586317168,23.17739701315499,17.16594047190601,-16.488781056708934,-9.037092353447635,14.275074347768072,17.083572601166413,-2.2961629667278087,-14.825370304167183,-5.522126003480967,-8.077885829269714,-15.271163403915695,15.805650019358197,-13.347841080709237,-13.094507847435525,-7.455307841682092,-7.3003750645372065,-7.044530353849097,-12.801981905247752,-1.6897572493860864,15.152038286469606,5.747704389019912,18.377732026435176,-3.9340648269393026,-19.39658950499767,18.13819115985739,-4.919845805316749,5.915229430004195,-14.62212087769279,-10.11918615083967,-12.341208874314061,-8.78521642381111,10.201415017540784,-14.43911090971253,-3.451663597376107,-4.388819430069136,13.646122587635274,-5.962915800585037,16.275442256063968,11.615567845111128,-16.106554442961023,-8.065247236539443,20.559683143472114,-2.34297222918011,-9.51303125209269,19.723403264054024,-17.416634475354332,-17.37080660271308,-15.456391935662294,15.765106392592461,6.289518516372097,-11.960102258209838,-2.1003339284367004,-1.1485036865989444,2.9672978014110143,0.9537573194556257,-12.10881295967905,-16.388686219264287,-2.9284133075685785,-2.076485942936486,-4.414533150052592,16.609794533519274,-15.565346098975441,-2.539287820652019,18.527516094640337,1.316033872632031,15.61207928806259,-17.35372502523172,-6.290335580300693,-12.364075706964092,-3.1652449783188064,-9.833581446039839,-5.1918682070327735,-5.022247714360081,-13.005065779568351,-4.717808464985075,-18.102517600552094,-6.8774002537128505,-19.72150061956634,-2.230745441940788,-12.592981301584208,-18.136702115469404,-0.9701296141245955,-0.25565526813429434,24.113461649036413,10.445771351039921,-1.4469608221135812,-10.384236205700754,-10.093857026583363,-1.2931121749544496,21.940728004080498,13.89786912083497,-17.615390447788176,-1.5146940964618318,1.821216895791176,-14.482257956220428,-1.5201517900697277,-4.476613082998517,-15.175811639274482,-18.86512254466476,-10.91230247138778,-0.4122347967819298,-14.338427342371714,-16.511487543037155,28.51784675848999,17.38166151114122,-7.512295389304691,1.9251487695974845,-0.6839633030988358,17.596726143885693,-13.482017814746655,-15.29163692112873,-9.960539385906031,18.66192057942901,-1.1098082220747372,-9.298692069847958,22.311475762256133,-4.521646016070751,-14.045027891452442,14.07601778845304,-1.7645889071441112,-5.628944284510367,-9.748984350801486,-13.705484554543608,-0.9079171522812923,-10.93296744616543,21.735729934129644,18.23698011764875,0.39285053993394425,-16.955349104129184,19.700097921575452,-14.80539396663964,-4.653944521904391,-1.923980450643145,21.228104847573825,-5.53517373875467,-22.75905269370056,-7.929099051300855,14.619823379255815,-21.763240449805817,-17.031051003525825,28.921951346569752,-15.434188561279319,15.548154923853645,-13.81093324779052,13.942786370761423,-6.470488106301242,-1.1309403174968176,-20.25889825317831,-20.559507548587927,0.5818426773091778,16.649086175290467,-5.705355530755939,19.433856631796107,-19.660437126653378,-7.091409898639191,15.17335322796287,-15.82177393011382,-8.608344449122795,21.160065636938803,-15.360491792922671,-12.159140981726074,-17.128875393379946,-4.809185562315542,-17.294190444486205,-10.958392913354698,-7.798672214386407,-5.881148589321917,11.538629361779176,8.283786102660496,6.80611021054734,-7.743164177433324,-15.233984963733185,-3.6657316934364323,-13.392046639974094,-9.632450968093757,15.504005375859862,-11.755893587169904,17.930371173520605,-4.155350603896468,-10.117589200654127,-11.918407165523409,-22.0772230430599,-12.511897392864148,-0.8371171122587622,10.057464874617022,-15.394819315323318,-20.070791696482342,16.529002640337488,18.239551515362546,1.3547213796380888,-4.39985689263353,-3.342643125440995,14.900634732310166,16.59952711599118,15.70964686960327,-8.846997026237487,-13.101569220143265,-13.84257380528181,-11.345893165287416,20.212908150779594,-15.26600709048442,-14.486800335631257,-2.9904970219424043,-18.006827441845815,-12.482655647807393,-1.6519527384235289,-19.238848836589195,-6.183349307531972],[6.626487731061311,-11.069330998976143,-15.151358130576346,-7.672510630565364,0.2472154063696068,0.05569485165257279,2.8825544350305785,-24.25598225798859,40.569796911949055,34.22566096902986]]